<?xml version="1.0"?>
<opencv_storage>
<my_svm type_id="opencv-ml-svm">
  <svm_type>C_SVC</svm_type>
  <kernel><type>LINEAR</type></kernel>
  <C>3.7000000000000002e+000</C>
  <term_criteria><epsilon>2.2204460492503131e-016</epsilon>
    <iterations>100</iterations></term_criteria>
  <var_all>512</var_all>
  <var_count>512</var_count>
  <class_count>2</class_count>
  <class_labels type_id="opencv-matrix">
    <rows>1</rows>
    <cols>2</cols>
    <dt>i</dt>
    <data>
      0 1</data></class_labels>
  <sv_total>1</sv_total>
  <support_vectors>
    <_>
      0. 0. 0. 0. 0. 0. 0. 0. 0. 0. 0. 0. 0. 0. 0. 0. 0. 0. 0. 0. 0. 0.
      0. 0. 0. 0. 0. 0. 0. 0. 0. 0. 0. 0. 0. 0. 0. 0. 0. 0. 0. 0. 0. 0.
      0. 0. 0. 0. 0. 0. 0. 0. 0. 0. 0. 0. 0. 0. 0. 0. 0. 0. 0. 0. 0. 0.
      0. 0. 0. 0. 0. 0. 0. 0. 0. 0. 0. 0. 0. 0. 0. 0. 0. 0. 0. 0. 0. 0.
      0. 0. 0. 0. 0. 0. 0. 0. 0. 0. 0. 0. 9.25242857e-005
      1.09178666e-003 1.85048580e-003 8.51223420e-004 9.80757526e-004
      7.95708853e-004 2.01702956e-003 2.97928206e-003 1.79497129e-003
      1.85097440e-003 2.22302601e-003 5.62645402e-003 6.81223115e-003
      5.01823705e-003 5.65131102e-003 7.08058290e-003 1.34589588e-002
      3.45482714e-002 3.50946821e-002 5.21386564e-002 1.94655359e-002
      4.84689139e-002 1.26535445e-001 1.31617889e-001 1.57245025e-001
      8.99539441e-002 2.02408969e-001 2.69122541e-001 -2.41714239e+000
      -1.14064224e-001 -1.20611805e-002 2.37660743e-002 4.86828350e-002
      3.99075337e-002 4.82165217e-002 1.03400247e-002 1.19059719e-002
      1.66355241e-002 1.26874456e-002 6.60122782e-002 3.98484543e-002
      3.78389880e-002 5.11083268e-002 2.99128555e-002 4.91399094e-002
      2.50800904e-002 2.45074816e-002 3.58380191e-002 1.77914314e-002
      3.25095244e-002 1.71632431e-002 1.35152154e-002 2.40491312e-002
      1.44327041e-002 2.52753384e-002 1.15740960e-002 1.18205231e-002
      2.25692317e-002 1.13968663e-002 2.11083256e-002 1.17217107e-002
      1.43436631e-002 2.22620405e-002 1.29065728e-002 2.15856060e-002
      1.07745426e-002 1.18225422e-002 2.23282427e-002 1.37510188e-002
      2.19328012e-002 1.17441239e-002 2.52925046e-002 1.53541649e-002
      1.48043307e-002 1.62164364e-002 8.52702092e-003 2.04789694e-002
      9.84666590e-003 7.50381500e-003 1.38490899e-002 8.27173516e-003
      1.82103738e-002 1.49008716e-002 1.34364814e-002 1.60622168e-002
      6.47669984e-003 1.41007025e-002 1.48779061e-002 1.39341578e-002
      1.59511864e-002 6.84679765e-003 1.24352640e-002 1.30274203e-002
      1.15100220e-002 2.06699260e-002 1.07698273e-002 1.42487406e-003
      7.40194286e-004 1.11029146e-003 5.55145743e-005 0. 0. 0. 0. 0. 0.
      0. 0. 0. 0. 0. 0. 0. 0. 0. 0. 0. 0. 0. 0. 0. 0. 0. 0. 0. 0. 0. 0.
      0. 0. 0. 0. 0. 0. 0. 0. 0. 0. 0. 0. 0. 0. 0. 0. 0. 0. 0. 0. 0. 0.
      0. 0. 0. 0. 0. 0. 0. 0. 0. 0. 0. 0. 0. 0. 0. 0. 0. 0. 0. 0. 0. 0.
      0. 0. 0. 0. 0. 0. 0. 0. 0. 0. 0. 0. 0. 0. 0. 0. 0. 0. 0. 0. 0. 0.
      0. 0. 0. 0. 0. 0. 0. 0. 0. 0. 0. 0. 0. 0. 0. 0. 0. 0. 0. 0. 0. 0.
      0. 0. 0. 0. 0. 0. 0. 0. 0. 0. 3.70097150e-005 5.55145743e-005
      2.59068009e-004 3.36788408e-003 7.66101107e-003 3.81200085e-003
      7.79054547e-003 6.60623424e-003 8.29017628e-003 1.34715363e-002
      1.09548764e-002 1.48964105e-002 9.86308977e-003 1.16210515e-002
      7.58699188e-003 1.22502157e-002 1.46558462e-002 1.29719060e-002
      6.97633158e-003 1.60807222e-002 1.89528838e-002 1.82205066e-002
      1.40150813e-002 6.67298771e-003 1.56810712e-002 2.79077869e-002
      3.41450311e-002 1.38589265e-002 2.30141990e-002 3.17539945e-002
      3.41937654e-002 3.43146324e-002 1.75566040e-002 3.45605053e-002
      3.29209007e-002 3.08716875e-002 2.21004914e-002 4.76993807e-002
      4.02477868e-002 3.74467745e-002 2.44321674e-002 5.07557392e-002
      5.55177182e-002 5.42373508e-002 3.94702181e-002 2.72152927e-002
      5.58439158e-002 7.60804936e-002 8.14906508e-002 3.54868546e-002
      5.57227097e-002 8.92430022e-002 1.06851041e-001 1.30826309e-001
      1.04565479e-001 9.84006152e-002 9.90072116e-002 1.91026732e-001
      -1.93306100e+000 -4.41259325e-001 7.28578717e-002 5.08804470e-002
      4.17220518e-002 7.16632009e-002 3.07744220e-002 1.10176755e-002
      2.52454216e-003 1.17802201e-003 4.24604630e-003 2.63948063e-003
      1.17704470e-003 3.35530640e-004 7.84044969e-004 6.33074262e-004
      2.03553442e-004 1.66543716e-004 0. 0. 0. 0. 0. 0. 0. 0. 0. 0. 0.
      0. 0. 0. 0. 0. 0. 0. 0. 0. 0. 0. 0. 0. 0. 0. 0. 0. 0. 0. 0. 0. 0.
      0. 0. 0. 0. 0. 0. 0. 0. 0. 0. 0. 0. 0. 0. 0. 0. 0. 0. 0. 0. 0. 0.
      0. 0. 0. 0. 0. 0. 0. 0. 0. 0. 0. 0. 0. 0. 0. 0. 0. 0. 0. 0. 0. 0.
      0. 0. 0. 0. 0. 0. 0. 0. 0. 0. 0. 0. 0. 0. 0. 0. 0. 0. 0. 0. 0. 0.
      0. 0. 0. 0. 0. 0. 0. 0. 0. 0. 0.</_></support_vectors>
  <decision_functions>
    <_>
      <sv_count>1</sv_count>
      <rho>-2.8417214358723633e+000</rho>
      <alpha>
        1.</alpha>
      <index>
        0</index></_></decision_functions></my_svm>
</opencv_storage>
