<?xml version="1.0"?>
<opencv_storage>
<my_svm type_id="opencv-ml-svm">
  <svm_type>C_SVC</svm_type>
  <kernel><type>LINEAR</type></kernel>
  <C>3.7000000000000002e+000</C>
  <term_criteria><epsilon>2.2204460492503131e-016</epsilon>
    <iterations>100</iterations></term_criteria>
  <var_all>512</var_all>
  <var_count>512</var_count>
  <class_count>2</class_count>
  <class_labels type_id="opencv-matrix">
    <rows>1</rows>
    <cols>2</cols>
    <dt>i</dt>
    <data>
      0 1</data></class_labels>
  <sv_total>1</sv_total>
  <support_vectors>
    <_>
      0. 0. 0. 0. 0. 0. 0. 0. 0. 0. 0. 0. 0. 0. 0. 0. 0. 0. 0. 0. 0. 0.
      0. 0. 0. 0. 0. 0. 0. 0. 0. 0. 0. 0. 0. 0. 0. 0. 0. 0. 0. 0. 0. 0.
      0. 0. 0. 0. 0. 0. 0. 0. 0. 0. 0. 0. 0. 0. 0. 0. 0. 0.
      2.00812268e-004 3.26319947e-004 5.27132186e-004 6.52639894e-004
      4.01624537e-004 6.77741366e-004 1.75710738e-004 3.26319947e-004
      6.52639894e-004 3.26319947e-004 2.66076275e-003 1.63159973e-003
      2.23403634e-003 5.72314952e-003 4.14175307e-003 5.69804804e-003
      4.34256531e-003 5.12071280e-003 1.30276969e-002 7.60576501e-003
      1.40317576e-002 9.38797370e-003 9.36287176e-003 1.81484092e-002
      8.20820127e-003 1.41805280e-002 9.87995602e-003 2.05053668e-002
      1.19710751e-002 1.02639226e-002 2.23620720e-002 1.26090180e-002
      2.41825469e-002 1.54906753e-002 1.76896639e-002 2.88043544e-002
      1.54956048e-002 2.82074884e-002 1.33147426e-002 1.42352106e-002
      2.81658657e-002 1.35374153e-002 2.67953631e-002 1.38168074e-002
      1.48697142e-002 3.63836773e-002 2.81884391e-002 5.57469204e-002
      2.81588584e-002 2.47555021e-002 5.24573624e-002 3.03248875e-002
      6.81262016e-002 3.40781957e-002 4.41861525e-002 1.09957159e-001
      4.74295877e-002 1.10563278e-001 6.46423399e-002 6.75634220e-002
      1.59163684e-001 6.81831464e-002 1.32580057e-001 7.43738040e-002
      6.78050593e-002 8.16903114e-002 3.81560326e-002 9.70814526e-002
      3.16563882e-002 5.90162985e-002 6.36208057e-002 3.81643549e-002
      5.92179000e-002 2.03004014e-002 4.48021106e-002 4.60487008e-002
      4.21992131e-002 6.71447441e-002 3.70094255e-002 3.96040902e-002
      3.06174792e-002 4.10200767e-002 -1.60496961e-002 -2.42325086e-002
      1.34272501e-002 -1.36261061e-001 -8.49236399e-002 -5.09817421e-001
      -2.44395271e-001 -3.42733532e-001 -1.21619475e+000
      -5.11300504e-001 -9.78105783e-001 -2.73451626e-001
      -1.16723739e-002 5.69213443e-002 1.93998367e-001 2.21420750e-001
      9.87974852e-002 1.68156922e-001 3.61010551e-001 2.46078193e-001
      8.91607925e-002 -1.43180177e-001 -9.38213766e-002 -2.51650512e-001
      -2.86329746e-001 -1.08165455e+000 -6.53156757e-001
      -5.77346206e-001 -2.25521952e-001 -3.56770992e-001
      -5.30194521e-001 -5.75655550e-002 2.58078188e-001 2.19934955e-001
      1.46393776e-001 2.10702375e-001 1.71190843e-001 2.99252689e-001
      1.47764668e-001 1.23927690e-001 2.15509087e-001 1.38874024e-001
      2.55082101e-001 1.25672713e-001 1.12256981e-001 2.22839862e-001
      1.29290491e-001 2.49912843e-001 1.04262814e-001 9.96339843e-002
      1.95378438e-001 1.10360533e-001 2.23905385e-001 1.02220647e-001
      8.36295635e-002 1.79748476e-001 1.01406954e-001 1.58942878e-001
      6.35650977e-002 3.36225890e-002 3.89280245e-002 -1.08764330e-002
      -7.98456743e-003 -3.63102346e-003 -4.32614528e-004
      -5.09526432e-002 -2.90071089e-002 7.43590528e-003 1.33411353e-002
      5.70148742e-003 8.53831321e-003 8.15540459e-003 1.80023275e-002
      7.45990966e-003 6.68886676e-003 1.51597038e-002 1.18778665e-002
      1.56163331e-002 3.28170368e-003 2.05250247e-003 6.55356736e-004 0.
      0. 0. 0. 0. 0. 0. 0. 0. 0. 0. 0. 0. 0. 0. 0. 0. 0. 0. 0. 0. 0. 0.
      0. 0. 0. 0. 0. 0. 0. 0. 0. 0. 0. 0. 0. 0. 0. 0. 0. 0.
      3.37485195e-004 2.24990130e-004 5.24976989e-004 4.87478595e-004
      1.19994732e-003 1.08745228e-003 1.72492431e-003 2.44743167e-003
      1.08007004e-003 2.95026205e-003 2.23619863e-003 1.07768108e-004
      -1.02861610e-003 -5.29469922e-003 -1.00214276e-002
      -2.32860893e-002 -3.87216508e-002 -3.70592140e-002
      -7.81324729e-002 -1.15584530e-001 -1.71825901e-001
      -9.31549966e-002 -2.23962456e-001 -2.61217654e-001
      -2.97501564e-001 -3.11345905e-001 -1.51963651e-001
      -3.41167003e-001 -3.61036301e-001 -3.96644503e-001
      -2.67061830e-001 -5.11595190e-001 -5.59229732e-001
      -5.90686738e-001 -2.78351575e-001 -5.89592516e-001
      -5.79483390e-001 -5.56723297e-001 -5.69207072e-001
      -2.42207184e-001 -4.95681077e-001 -4.52384114e-001
      -3.97682846e-001 -1.88854381e-001 -3.20728779e-001
      -1.93253428e-001 -1.35783285e-001 -1.13140449e-001
      -4.64726947e-002 4.42556329e-002 1.13979183e-001 1.13257654e-001
      5.71166240e-002 8.73094648e-002 1.70215443e-001 1.53361037e-001
      5.94358370e-002 9.56844538e-002 1.09468959e-001 1.44301072e-001
      8.35229158e-002 4.53185327e-002 6.54230863e-002 7.56648183e-002
      1.76942900e-001 1.09679766e-001 1.33217007e-001 1.38120130e-001
      2.07054123e-001 2.09769815e-001 1.08486824e-001 2.11369768e-001
      1.77512169e-001 1.63256586e-001 1.39702201e-001 2.33737916e-001
      2.53547400e-001 2.21939310e-001 1.45329043e-001 3.33230048e-001
      3.62188101e-001 2.85278320e-001 3.52548450e-001 2.74232745e-001
      4.13377464e-001 3.65816385e-001 2.87145287e-001 1.51182547e-001
      2.39259019e-001 2.66131669e-001 2.63323992e-001 2.27369592e-001
      1.33815825e-001 2.44889766e-001 2.00482324e-001 1.99597076e-001
      1.32901430e-001 1.96287900e-001 2.15839833e-001 1.67060822e-001
      7.64276981e-002 1.00605249e-001 9.93633047e-002 6.85466677e-002
      3.47260199e-002 2.00458989e-002 1.24550629e-002 2.50703488e-002
      1.82603449e-002 8.29279702e-003 2.48332303e-002 2.63252985e-002
      1.59194469e-002 1.97852459e-002 1.11598736e-002 1.84277371e-002
      1.59744527e-002 1.20558487e-002 8.37397017e-003 6.52446877e-003
      1.88353867e-003 1.36849552e-003 7.28252344e-004 1.45773636e-003
      1.64461229e-003 1.67063740e-003 6.78357144e-004 4.27341845e-004
      -1.23968217e-004 -7.46888181e-005 -1.12495065e-004 0. 0. 0. 0. 0.
      0. 0. 0. 0. 0. 0. 0. 0. 0. 0. 0. 0. 0. 0. 0. 0. 0. 0. 0. 0. 0. 0.
      0. 0. 0. 0. 0. 0. 0. 0. 0. 0. 0. 0. 0. 0. 0. 0. 0. 0. 0. 0. 0. 0.
      0. 0. 0. 0. 0. 0. 0. 0. 0. 0. 0. 0. 0. 0. 0. 0. 0. 0. 0. 0. 0. 0.
      0. 0. 0. 0. 0. 0. 0. 0. 0. 0. 0. 0. 0. 0. 0. 0. 0. 0. 0. 0. 0. 0.
      0. 0. 0. 0. 0. 0. 0. 0. 0. 0. 0. 0. 0. 0. 0. 0. 0. 0. 0. 0. 0. 0.</_></support_vectors>
  <decision_functions>
    <_>
      <sv_count>1</sv_count>
      <rho>-9.5146723888590690e-001</rho>
      <alpha>
        1.</alpha>
      <index>
        0</index></_></decision_functions></my_svm>
</opencv_storage>
