<?xml version="1.0"?>
<opencv_storage>
<my_svm type_id="opencv-ml-svm">
  <svm_type>C_SVC</svm_type>
  <kernel><type>LINEAR</type></kernel>
  <C>3.7000000000000002e+000</C>
  <term_criteria><epsilon>2.2204460492503131e-016</epsilon>
    <iterations>100</iterations></term_criteria>
  <var_all>512</var_all>
  <var_count>512</var_count>
  <class_count>2</class_count>
  <class_labels type_id="opencv-matrix">
    <rows>1</rows>
    <cols>2</cols>
    <dt>i</dt>
    <data>
      0 1</data></class_labels>
  <sv_total>1</sv_total>
  <support_vectors>
    <_>
      0. 0. 0. 0. 0. 0. 0. 0. 0. 0. 0. 0. 0. 0. 0. 0. 0. 0. 0. 0. 0. 0.
      0. 0. 0. 0. 0. 0. 0. 0. 0. 0. 0. 0. 0. 0. 0. 0. 0. 0. 0. 0. 0. 0.
      0. 0. 0. 0. 0. 0. 0. 0. 0. 0. 0. 0. 0. 0. 0. 0. 0. 0. 0. 0. 0. 0.
      0. 0. 0. 0. 0. 0. 0. 0. 0. 0. 0. 0. 0. 0. 0. 0. 0. 0. 0. 0. 0. 0.
      0. 3.68680958e-005 1.10604284e-004 7.74229993e-004 7.22614629e-003
      9.36449599e-003 2.15309672e-002 1.19465217e-002 1.74128488e-002
      3.81164216e-002 2.69133952e-002 4.96207401e-002 2.26637106e-002
      3.26706022e-002 7.23522529e-002 4.54474874e-002 7.02845231e-002
      2.84159910e-002 -3.79051315e-003 -1.43900132e-002 -1.32714892e-002
      1.94345452e-002 -5.50955050e-002 -9.49359685e-002 -1.24611139e-001
      -5.73100895e-002 -3.43815349e-002 -4.40446250e-002
      -4.31164838e-002 -7.62770399e-002 -6.91009015e-002
      -1.64750978e-001 -6.73995242e-002 -9.81593281e-002
      -2.83251017e-001 -2.58029133e-001 -1.33266851e-001 1.87970046e-002
      2.98671443e-002 3.68986666e-001 5.15052378e-001 1.31034955e-001
      2.17017476e-002 1.04998872e-001 1.64145872e-001 -7.35537382e-003
      -6.16513528e-002 -4.30751033e-002 2.03176849e-002 -1.41036049e-001
      -9.75473151e-002 -2.13820279e-001 -1.16325192e-001
      -1.56059489e-001 -1.82998702e-001 4.36052792e-002 1.59105346e-001
      5.36770001e-002 1.30626515e-001 2.18333572e-001 1.83980614e-001
      1.81593835e-001 6.41451851e-002 5.58684506e-002 -2.56453753e-002
      -1.63385451e-001 -1.45096719e-001 -2.92297006e-002
      -8.56223851e-002 -1.43360242e-001 -5.63722067e-002 6.88645383e-003
      1.04531106e-002 3.54148261e-002 8.38193893e-002 8.92583206e-002
      5.64552806e-002 2.00620741e-002 4.36187796e-002 6.69248179e-002
      4.40265015e-002 2.05595475e-002 1.97801646e-002 2.48247795e-002
      4.03908174e-003 -4.42428002e-003 -5.97077981e-003 -3.32671741e-004
      -1.32790199e-002 -6.83155051e-003 -1.33574512e-002
      -2.62156427e-002 -1.96880121e-002 -3.07611693e-002
      -1.32397981e-002 -2.59779627e-003 -1.09209567e-002
      -1.17532462e-002 -2.95361597e-002 -1.62588954e-002
      -1.39012439e-002 -1.79838017e-002 -2.24700589e-002
      -3.88116241e-002 -1.82542317e-002 -9.43962764e-003 2.79163010e-003
      -6.24577980e-004 -1.10090747e-002 -6.98004803e-003
      -5.20567643e-003 -9.76017956e-003 -1.03020864e-002
      -1.81302167e-002 -1.47421175e-004 2.37295544e-003 5.77145768e-003
      8.75087921e-003 2.33010519e-002 1.48840016e-002 1.27904452e-002
      4.18270156e-002 3.38968597e-002 2.66114771e-002 1.34122726e-002
      6.41836366e-003 1.16880620e-002 8.67742859e-003 8.51807743e-003
      2.31784396e-003 1.04302983e-003 5.79460990e-004 1.44865262e-005 0.
      0. 0. 0. 0. 0. 0. 0. 0. 0. 0. 0. 0. 0. 0. 0. 0. 0. 0. 0. 0. 0. 0.
      0. 0. 0. 0. 0. 0. 0. 0. 0. 0. 0. 0. 0. 0. 0. 0. 0. 0. 0. 0. 0. 0.
      0. 0. 0. 0. 0. 0. 0. 0. 0. 0. 0. 0. 0. 0. 0. 0. 0. 0. 0. 0. 0. 0.
      0. 1.24547864e-006 6.22739253e-006 7.97106331e-005 7.14801499e-005
      3.64411564e-004 8.25970434e-004 1.60688558e-003 1.06461451e-003
      3.25533398e-003 4.07448597e-003 4.58134431e-003 2.33747950e-003
      5.63479867e-003 5.66637516e-003 5.95152983e-003 6.78798789e-003
      3.55145312e-003 9.63936374e-003 1.16048539e-002 1.25194015e-002
      7.32757058e-003 1.80312153e-002 2.14293860e-002 1.69648323e-002
      1.45681240e-002 9.37054958e-003 1.63998194e-002 2.00708434e-002
      2.17004251e-002 1.00642648e-002 2.34750193e-002 3.63783017e-002
      4.59758453e-002 2.53504906e-002 3.78324501e-002 5.59794903e-002
      8.21785107e-002 9.21610966e-002 5.05131185e-002 7.11066276e-002
      1.03523023e-001 1.26376837e-001 4.61671539e-002 5.73336668e-002
      6.11378439e-002 5.45915440e-002 7.84836486e-002 4.15274315e-002
      9.27979648e-002 1.02149807e-001 1.15423970e-001 8.13962594e-002
      1.00551248e-001 4.56014983e-002 3.50334980e-002 -5.91720641e-003
      -1.08899623e-001 -1.55184388e-001 -7.07715973e-002
      -1.89609572e-001 -1.99119821e-001 -2.06708699e-001
      -3.76871675e-002 1.60816461e-001 9.42881629e-002 3.29808086e-001
      4.71974701e-001 4.26218361e-001 2.83865392e-001 2.32391238e-001
      3.93428117e-001 2.62953788e-001 3.43164764e-002 1.96940377e-002
      -2.25013848e-002 -2.52256691e-001 -4.81269538e-001
      -2.44152904e-001 -2.34245256e-001 -3.58780444e-001
      -3.96912307e-001 -3.05944830e-001 -9.59599018e-002
      -2.49530599e-002 5.93630373e-002 1.55440226e-001 1.07437544e-001
      1.18417092e-001 2.42794618e-001 3.67628276e-001 2.52377003e-001
      8.82103816e-002 8.44331607e-002 -5.68535253e-002 -5.07785916e-001
      -3.58841747e-001 -6.94762766e-001 -4.52930033e-001
      -1.78959623e-001 -1.43854320e-001 -2.26141781e-001
      -2.08065704e-001 -1.47484824e-001 1.62081700e-002 -4.21874970e-003
      6.27522310e-003 4.15782630e-002 3.88951376e-002 2.82726884e-002
      5.63445278e-002 5.89288697e-002 2.14887727e-002 6.51816791e-003
      2.38240091e-003 5.32806944e-003 3.33845196e-003 3.69940593e-004
      3.81277387e-005 9.28000591e-005 1.10604284e-004 0. 3.68680958e-005
      1.90638693e-005 7.37361916e-005 0. 1.90638693e-005 0. 0. 0. 0. 0.
      0. 0. 0. 0. 0. 0. 0. 0. 0. 0. 0. 0. 0. 0. 0. 0. 0. 0. 0. 0. 0. 0.
      0. 0. 0. 0. 0. 0. 0. 0. 0. 0. 0. 0. 0. 0. 0. 0. 0. 0. 0. 0. 0. 0.
      0. 0. 0. 0. 0. 0. 0. 0. 0. 0. 0. 0. 0. 0. 0. 0. 0. 0. 0. 0. 0. 0.
      0. 0. 0. 0. 0. 0. 0. 0. 0. 0. 0. 0. 0. 0. 0. 0. 0. 0. 0. 0. 0. 0.
      0. 0. 0. 0.</_></support_vectors>
  <decision_functions>
    <_>
      <sv_count>1</sv_count>
      <rho>-9.6505165945907390e-001</rho>
      <alpha>
        1.</alpha>
      <index>
        0</index></_></decision_functions></my_svm>
</opencv_storage>
