<?xml version="1.0"?>
<opencv_storage>
<my_svm type_id="opencv-ml-svm">
  <svm_type>C_SVC</svm_type>
  <kernel><type>LINEAR</type></kernel>
  <C>5.</C>
  <term_criteria><epsilon>2.2204460492503131e-016</epsilon>
    <iterations>100</iterations></term_criteria>
  <var_all>512</var_all>
  <var_count>512</var_count>
  <class_count>2</class_count>
  <class_labels type_id="opencv-matrix">
    <rows>1</rows>
    <cols>2</cols>
    <dt>i</dt>
    <data>
      0 1</data></class_labels>
  <sv_total>1</sv_total>
  <support_vectors>
    <_>
      0. 0. 0. 0. 0. 0. 0. 0. 0. 0. 0. 0. 0. 0. 0. 0. 0. 0. 0. 0. 0. 0.
      0. 0. 0. 0. 0. 0. 0. 0. 0. 0. 0. 0. 0. 0. 0. 0. 0. 0. 0. 0. 0. 0.
      0. 0. 0. 0. 0. 0. 0. 0. 0. 0. 0. 0. 0. 0. 0. 0. 0. 0.
      6.08219125e-004 9.88356071e-004 1.59657525e-003 1.95135828e-003
      1.21643825e-003 2.07809359e-003 5.32191771e-004 9.88356071e-004
      1.97671214e-003 1.01371005e-003 8.13496578e-003 5.16996626e-003
      7.04533141e-003 1.79173853e-002 1.34065542e-002 1.97175499e-002
      1.53078241e-002 2.00225897e-002 4.93716076e-002 2.84113362e-002
      5.26408888e-002 3.61925513e-002 3.83476689e-002 6.83039799e-002
      3.12247965e-002 5.36802299e-002 3.54059562e-002 6.87827095e-002
      3.90543081e-002 3.37577462e-002 6.40158579e-002 3.42882164e-002
      6.30266070e-002 3.80883813e-002 4.05406840e-002 6.23034649e-002
      3.39181386e-002 6.23751022e-002 3.07099447e-002 3.32873240e-002
      6.53807744e-002 3.36564109e-002 5.66186383e-002 3.04695759e-002
      3.17014121e-002 6.60806075e-002 3.99904326e-002 6.18973151e-002
      3.46702337e-002 2.78613139e-002 6.03931136e-002 3.45210284e-002
      6.07940368e-002 3.34965438e-002 3.47435959e-002 6.47567958e-002
      3.61205488e-002 6.98114336e-002 3.42621803e-002 3.25337127e-002
      7.13017434e-002 4.34343368e-002 7.72340223e-002 4.58366014e-002
      4.22923081e-002 1.12447910e-001 9.13012251e-002 1.52176633e-001
      8.60519782e-002 9.18870270e-002 9.49765965e-002 1.93368450e-001
      2.58692950e-001 1.25970632e-001 -6.10030554e-002 -2.77118962e-002
      -4.93380092e-002 2.18422756e-001 2.14731693e-001 -1.19865807e-002
      -2.59638131e-001 -4.75176513e-001 -4.13951904e-001 7.33489320e-002
      -3.52343768e-001 -7.27411091e-001 -5.19280672e-001
      -1.45979121e-001 1.35174215e-001 -1.55726075e-001 -3.70226711e-001
      -5.34510128e-002 2.09277764e-001 2.32195035e-001 2.27405846e-001
      8.70899111e-002 -1.94041058e-001 -2.30338220e-002 1.59871340e-001
      -2.31037252e-002 -2.96822071e-001 -4.28508222e-001
      -3.00317198e-001 3.78538780e-002 -1.49476320e-001 -2.49840304e-001
      -1.91970006e-001 -7.13308603e-002 -1.30356595e-001
      -1.94736376e-001 -1.25348315e-001 -7.77246505e-002
      -5.03309593e-002 -6.06014915e-002 -6.98169991e-002
      -1.45631740e-002 9.31985863e-003 4.07237746e-002 1.74842328e-002
      1.36253433e-002 -1.15449894e-002 -2.34037731e-002 6.22552121e-003
      -2.68748705e-003 2.33320035e-002 2.37995069e-002 2.79827584e-002
      4.88562137e-002 3.92393023e-002 7.51425549e-002 4.37366702e-002
      3.60901728e-002 3.74553800e-002 3.11574321e-002 6.05649836e-002
      2.53189038e-002 2.09432002e-002 4.09822352e-002 3.02405395e-002
      6.57078624e-002 5.26628979e-002 3.98055390e-002 4.23938371e-002
      3.86405922e-002 5.77802658e-002 2.82668676e-002 1.83241274e-002
      4.48944345e-002 4.01546694e-002 4.72845063e-002 2.42108013e-002
      7.96999410e-003 1.35105615e-002 1.01839406e-002 1.38237067e-002
      3.87194729e-003 1.28090568e-003 2.91956239e-004 0. 0. 0. 0. 0. 0.
      0. 0. 0. 0. 0. 0. 0. 0. 0. 0. 0. 0. 0. 0. 0. 0. 0. 0. 0. 0. 0. 0.
      0. 0. 0. 0. 0. 0. 0. 0. 0. 0. 0. 0. 0. 0. 0. 0. 0. 0. 0. 0. 0. 0.
      0. 0. 0. 0. 0. 0. 6.47040542e-006 2.74992235e-005 2.91168235e-005
      1.27790510e-004 2.45875417e-004 5.16014814e-004 7.48949416e-004
      7.16597366e-004 1.54319173e-003 2.12391070e-003 3.19961575e-003
      1.73568632e-003 4.02135681e-003 4.65692580e-003 5.39821712e-003
      5.75966900e-003 2.74696830e-003 6.44769566e-003 6.48341561e-003
      6.17491500e-003 4.16483032e-003 6.76603429e-003 7.66489608e-003
      7.98561145e-003 3.60421790e-003 7.68762780e-003 8.20788555e-003
      8.90263263e-003 9.69123933e-003 5.41739678e-003 1.21082766e-002
      1.36216357e-002 1.54902134e-002 8.11873283e-003 1.90684609e-002
      2.39355098e-002 2.50388458e-002 2.41594147e-002 1.37539813e-002
      2.74185333e-002 2.64981389e-002 2.05424000e-002 1.07144564e-002
      1.32982451e-002 -4.58388170e-003 -1.35458373e-002 -1.80192348e-002
      -3.35656069e-002 -7.34853223e-002 -1.21845551e-001
      -1.11390181e-001 -3.40989195e-002 -4.80377786e-002
      -5.47665283e-002 7.24332640e-003 2.03975085e-002 6.85142651e-002
      5.37520573e-002 7.89878815e-002 7.90682137e-002 4.72226925e-002
      6.17278330e-002 4.82309377e-003 -1.22161247e-002 -5.33398688e-002
      -4.58815135e-002 5.55558875e-002 -2.73260176e-002 -1.52196381e-002
      2.36823689e-003 -3.09798270e-002 -2.06380878e-002 1.36636542e-002
      -4.79265712e-002 -2.41457820e-002 3.45223509e-002 8.90778471e-003
      -5.10230586e-002 -2.39537150e-001 -3.24650109e-001
      -1.31629452e-001 1.35725543e-001 -7.76210502e-002 -2.62911171e-001
      -2.16941923e-001 1.23403005e-001 2.22338974e-001 2.72989064e-001
      1.01567231e-001 -2.10845657e-002 3.35200690e-002 2.76255429e-001
      5.49609400e-002 -1.54499874e-001 -4.78517488e-002 -3.79918306e-003
      1.43247470e-001 6.98074847e-002 -5.55580519e-002 -8.71125013e-002
      -1.80366710e-002 3.19630243e-002 1.36799077e-002 6.89496379e-003
      -7.97600485e-003 7.15048239e-003 2.92700846e-002 -2.70060875e-004
      6.98461226e-005 2.22005248e-002 9.88514442e-003 3.90247558e-003
      2.02721357e-003 4.63715475e-003 4.07957425e-003 4.45953896e-003
      1.95111718e-003 1.21619727e-003 6.84212078e-004 2.28082179e-004
      5.07078803e-005 0. 2.53539401e-005 0. 0. 0. 0. 0. 0. 0. 0. 0. 0.
      0. 0. 0. 0. 0. 0. 0. 0. 0. 0. 0. 0. 0. 0. 0. 0. 0. 0. 0. 0. 0. 0.
      0. 0. 0. 0. 0. 0. 0. 0. 0. 0. 0. 0. 0. 0. 0. 0. 0. 0. 0. 0. 0. 0.
      0. 0. 0. 0. 0. 0. 0. 0. 0. 0. 0. 0. 0. 0. 0. 0. 0. 0. 0. 0. 0. 0.
      0. 0. 0. 0. 0. 0. 0. 0. 0. 0. 0. 0. 0. 0. 0. 0. 0. 0. 0. 0. 0. 0.
      0. 0. 0. 0. 0. 0. 0. 0. 0. 0. 0. 0. 0. 0. 0.</_></support_vectors>
  <decision_functions>
    <_>
      <sv_count>1</sv_count>
      <rho>-1.1418207462053673e+000</rho>
      <alpha>
        1.</alpha>
      <index>
        0</index></_></decision_functions></my_svm>
</opencv_storage>
