<?xml version="1.0"?>
<opencv_storage>
<my_svm type_id="opencv-ml-svm">
  <svm_type>C_SVC</svm_type>
  <kernel><type>LINEAR</type></kernel>
  <C>3.7000000000000002e+000</C>
  <term_criteria><epsilon>2.2204460492503131e-016</epsilon>
    <iterations>100</iterations></term_criteria>
  <var_all>512</var_all>
  <var_count>512</var_count>
  <class_count>2</class_count>
  <class_labels type_id="opencv-matrix">
    <rows>1</rows>
    <cols>2</cols>
    <dt>i</dt>
    <data>
      0 1</data></class_labels>
  <sv_total>1</sv_total>
  <support_vectors>
    <_>
      0. 0. 0. 0. 0. 0. 0. 0. 0. 0. 0. 0. 0. 0. 0. 0. 0. 0. 0. 0. 0. 0.
      0. 0. 0. 0. 0. 0. 0. 0. 0. 0. 0. 0. 0. 0. 0. 0. 0. 0. 0. 0. 0. 0.
      0. 0. 0. 0. 0. 0. 0. 0. 0. 0. 0. 0. 0. 0. 0. 0. 0. 0.
      1.36508243e-004 2.21825874e-004 2.08340702e-004 -1.89830980e-003
      -1.03942596e-003 -2.85957474e-003 -2.91792210e-003
      -2.74054427e-003 -6.38104882e-003 -2.72348057e-003
      -3.95232020e-003 -2.03715404e-003 -2.41846591e-003
      -1.82928599e-003 -9.91664943e-004 9.13220792e-005 1.70250889e-003
      3.55589832e-003 9.60307103e-003 4.36291192e-003 8.93925037e-003
      7.89086334e-003 9.78787150e-003 1.42626576e-002 6.86285133e-003
      1.03075458e-002 6.46756683e-003 8.23990069e-003 5.02778590e-003
      4.17824509e-003 5.96182467e-003 4.35370393e-003 7.73718487e-003
      4.47548740e-003 3.96500388e-003 9.69354063e-003 5.34986285e-003
      1.14196995e-002 5.30877942e-003 4.99705411e-003 1.27924765e-002
      4.24948568e-003 1.00695798e-002 3.91741982e-003 3.86567204e-003
      9.66953952e-003 4.00386192e-003 1.37583483e-002 7.50916312e-003
      8.28050543e-003 3.50361355e-002 2.05200035e-002 2.16319468e-002
      5.31536248e-003 -2.64234887e-003 -1.72955040e-002 -1.85094252e-002
      -2.41562929e-002 -9.10474267e-003 -1.69583838e-002
      -4.33032103e-002 -5.20737804e-002 -9.96345356e-002
      -3.30211893e-002 -5.29011004e-002 -5.47112189e-002 2.49364413e-002
      -6.15707524e-002 -3.79574038e-002 6.74202517e-002 1.32568717e-001
      1.63336769e-001 7.38742501e-002 -1.41706923e-002 7.40369707e-002
      1.04086190e-001 1.55800581e-001 9.17056352e-002 -2.01835800e-002
      4.86101881e-002 7.22787008e-002 8.19706768e-002 5.00646420e-003
      -1.17155537e-002 3.61818746e-002 3.93812507e-002 8.30578730e-002
      3.39300558e-002 -1.56379174e-002 6.32679984e-002 1.62535742e-001
      2.01814801e-001 1.77384779e-001 5.96571006e-002 1.77468821e-001
      2.94046253e-001 1.93255022e-001 1.82950065e-001 3.42021622e-002
      4.28608246e-003 -2.32515093e-002 3.28548364e-002 -1.14063099e-001
      -1.67903394e-001 -1.51300162e-001 -1.31175056e-001
      -2.65127290e-002 3.08482610e-002 3.28375399e-002 5.95668405e-002
      1.45482821e-002 3.43900993e-002 5.76847307e-002 5.10663688e-002
      9.92776155e-002 5.21510728e-002 4.81622592e-002 9.11829248e-002
      8.84861276e-002 2.04568490e-001 1.10076644e-001 7.03239515e-002
      7.43256360e-002 6.96334094e-002 4.14969251e-002 3.14776599e-002
      -2.34230366e-002 -2.12735727e-001 -1.61034361e-001
      -3.71464372e-001 -2.18339473e-001 -1.66133255e-001
      -3.54983002e-001 -3.04876894e-001 -4.37650770e-001
      -2.21989512e-001 -1.26550660e-001 -1.86992660e-001
      -1.08943157e-001 -1.61782458e-001 -6.57670051e-002
      -4.60221991e-002 -7.40997642e-002 -3.77531871e-002
      -4.08751070e-002 -4.11288999e-003 -1.48697104e-003
      -1.02869943e-002 -9.70265653e-004 1.06411958e-002 4.12951875e-003
      4.41649882e-003 4.50599659e-003 1.43934740e-002 1.34049356e-002
      5.37616899e-003 5.56240790e-003 9.65745654e-003 8.82674474e-003
      1.17462156e-002 3.71608697e-003 2.77133030e-003 3.65387346e-003
      2.17490457e-003 4.38730745e-003 7.12468755e-004 0. 0. 0. 0. 0. 0.
      0. 0. 0. 0. 0. 0. 0. 0. 0. 0. 0. 0. 0. 0. 0. 0. 0. 0. 0. 0. 0. 0.
      0. 0. 0. 0. 0. 0. 0. 0. 0. 3.44914656e-006 2.41440266e-005
      3.10423202e-005 5.51863450e-005 4.13897615e-005 1.65116784e-004
      1.92709951e-004 -8.65820111e-005 -1.00879488e-003 -1.72490964e-003
      -6.93658693e-003 -1.30525678e-002 -1.69626381e-002
      -9.94363241e-003 -2.82139834e-002 -3.71840559e-002
      -3.78236063e-002 -4.42594439e-002 -2.65926328e-002
      -4.70476449e-002 -5.39657809e-002 -5.74553609e-002
      -2.75935680e-002 -5.58972061e-002 -5.64808100e-002
      -5.64166866e-002 -5.24728447e-002 -2.82449648e-002
      -5.69639951e-002 -5.08221649e-002 -4.98046242e-002
      -2.93266121e-002 -4.34859283e-002 -3.88982557e-002
      -3.12197637e-002 -1.09114526e-002 -2.30570026e-002
      -1.31183723e-002 2.04146793e-003 8.56657326e-003 4.96781152e-003
      1.77812725e-002 2.50415113e-002 4.58951145e-002 2.92479936e-002
      7.60388151e-002 1.03322618e-001 1.14196561e-001 1.14505842e-001
      5.61298244e-002 1.48698106e-001 1.65102199e-001 1.67131022e-001
      8.58578235e-002 1.57909870e-001 1.51592389e-001 1.42834023e-001
      6.91607222e-002 9.51449275e-002 6.18555471e-002 3.73938344e-002
      -2.49945950e-002 -7.07426518e-002 -4.10769507e-002
      -6.47621974e-002 -7.96163231e-002 -1.64271183e-002
      -1.68706495e-002 6.84814751e-002 1.29956439e-001 1.80073768e-001
      7.95008168e-002 1.42584354e-001 5.54333068e-002 1.73767097e-003
      1.66414287e-002 -4.00463827e-002 -7.01540783e-002 -1.62711188e-001
      -1.20526344e-001 -2.09371805e-001 -2.40357488e-001
      -2.94907391e-001 -7.53550902e-002 9.52786580e-002 5.68949664e-003
      -1.53639838e-001 -1.98489666e-001 -5.34748435e-002
      -3.57933715e-002 -1.97040867e-002 -1.55740350e-001
      -2.06349596e-001 -6.23661466e-003 3.64317112e-002 9.88568887e-002
      2.62934212e-002 -1.99639760e-002 9.38274898e-003 8.29109773e-002
      5.87328859e-002 6.93234522e-003 -3.71228084e-002 -2.89896224e-002
      -1.18981497e-002 -8.67542252e-003 -9.72680282e-003
      -2.26682723e-002 -8.77311267e-003 5.46872732e-004 -3.22005100e-004
      -6.79701287e-003 1.04011390e-002 3.66773717e-002 4.08531427e-002
      2.45001800e-002 2.59232633e-002 5.55303171e-002 9.29402709e-002
      7.12644607e-002 5.67855984e-002 2.11572256e-002 1.15657244e-002
      1.05210077e-002 1.46456361e-002 2.01074760e-002 1.42862014e-002
      5.58748050e-003 6.51251292e-003 9.12028179e-003 3.77976289e-003
      2.12742598e-003 1.54822657e-003 3.27303656e-003 2.93391431e-003
      6.70156558e-004 1.92585823e-004 4.98066765e-005 -7.92906139e-005
      3.32044510e-006 -2.42165734e-005 3.32044510e-006 0. 0. 0. 0. 0.
      6.64089021e-006 0. 0. 0. 0. 0. 0. 0. 0. 0. 0. 0. 0. 0. 0. 0. 0. 0.
      0. 0. 0. 0. 0. 0. 0. 0. 0. 0. 0. 0. 0. 0. 0. 0. 0. 0. 0. 0. 0. 0.
      0. 0. 0. 0. 0. 0. 0. 0. 0. 0. 0. 0. 0. 0. 0. 0. 0. 0. 0. 0. 0. 0.
      0. 0. 0. 0. 0. 0. 0. 0. 0. 0. 0. 0. 0. 0. 0. 0. 0. 0. 0. 0. 0. 0.
      0. 0. 0. 0. 0. 0. 0. 0. 0. 0. 0. 0. 0. 0. 0. 0.</_></support_vectors>
  <decision_functions>
    <_>
      <sv_count>1</sv_count>
      <rho>-9.5961549201446061e-001</rho>
      <alpha>
        1.</alpha>
      <index>
        0</index></_></decision_functions></my_svm>
</opencv_storage>
