<?xml version="1.0"?>
<opencv_storage>
<my_svm type_id="opencv-ml-svm">
  <svm_type>C_SVC</svm_type>
  <kernel><type>LINEAR</type></kernel>
  <C>3.7000000000000002e+000</C>
  <term_criteria><epsilon>2.2204460492503131e-016</epsilon>
    <iterations>100</iterations></term_criteria>
  <var_all>512</var_all>
  <var_count>512</var_count>
  <class_count>2</class_count>
  <class_labels type_id="opencv-matrix">
    <rows>1</rows>
    <cols>2</cols>
    <dt>i</dt>
    <data>
      0 1</data></class_labels>
  <sv_total>1</sv_total>
  <support_vectors>
    <_>
      0. 0. 0. 0. 0. 0. 0. 0. 0. 0. 0. 0. 0. 0. 0. 0. 0. 0. 0. 0. 0. 0.
      0. 0. 0. 0. 0. 0. 0. 0. 0. 0. 0. 0. 0. 0. 0. 0. 0. 0. 0. 0. 0. 0.
      0. 0. 0. 0. 0. 0. 0. 0. 0. 0. 0. 0. 0. 0. 0. 0. 0. 0.
      -5.99973660e-004 -9.74957191e-004 -1.55451358e-003
      -1.56532286e-003 -9.75357601e-004 -1.51114375e-003
      -3.49629554e-005 -4.84943186e-004 -8.06548342e-004
      -5.22441580e-004 -7.12295296e-003 -4.57933685e-003
      -6.35216804e-003 -1.67979281e-002 -1.27918767e-002
      -1.95794795e-002 -1.55696906e-002 -2.14023534e-002
      -5.23601137e-002 -2.96323746e-002 -5.51666170e-002
      -3.86453234e-002 -4.18293476e-002 -7.22112879e-002
      -3.32009904e-002 -5.68228178e-002 -3.69099900e-002
      -6.90046400e-002 -3.89596298e-002 -3.38901319e-002
      -6.10577613e-002 -3.18236686e-002 -5.78762218e-002
      -3.37909088e-002 -3.44250090e-002 -5.23861200e-002
      -2.66702026e-002 -4.85783294e-002 -2.35783998e-002
      -2.45567206e-002 -4.78264317e-002 -2.30966303e-002
      -4.13644873e-002 -2.33658850e-002 -2.06896160e-002
      -4.14332077e-002 -2.21617445e-002 -4.08725217e-002
      -1.92239080e-002 -8.79004132e-003 -3.53359804e-002
      -2.41947211e-002 -5.81111424e-002 -3.05618271e-002
      -3.02149840e-002 -7.74748176e-002 -3.88946868e-002
      -7.58546069e-002 -4.43587117e-002 -3.60035263e-002
      -8.94922316e-002 -3.96539494e-002 -7.61055946e-002
      -3.67785133e-002 -1.40754431e-002 -1.36414468e-002 2.17937380e-002
      -4.24242355e-002 -3.75411510e-002 -4.76863189e-003 3.86705957e-002
      4.80391830e-002 2.20911633e-002 -2.28477698e-002 6.26819283e-002
      1.10467225e-001 1.19520590e-001 -1.66849736e-002 -1.00839533e-001
      5.32878637e-002 1.66692436e-001 1.31047547e-001 -7.21154734e-002
      -2.10067540e-001 -6.67531267e-002 3.85526419e-002 -2.83224713e-002
      -3.00623298e-001 -2.24958628e-001 -8.03574324e-002 1.09242395e-001
      9.64199379e-002 -1.37223070e-002 -3.94187160e-002 5.09881862e-002
      1.97695240e-001 1.65369004e-001 1.78278625e-001 8.24627280e-002
      1.00103289e-001 1.31494001e-001 -1.60243753e-002 5.01236040e-003
      9.81276929e-002 5.12503721e-002 -4.56675217e-002 -1.28920853e-001
      1.02454692e-001 -4.00171019e-002 -3.08496833e-001 -2.91288257e-001
      -1.98262319e-001 5.88343572e-003 -1.27201721e-001 -2.23992974e-001
      -1.99841186e-001 -8.45051557e-002 8.74747932e-002 -7.34371424e-004
      1.67742729e-001 1.13314070e-001 1.26101658e-001 2.97233254e-001
      1.69973969e-001 2.97722548e-001 1.52611062e-001 1.16899386e-001
      1.97180673e-001 9.95593071e-002 1.64756730e-001 8.38321224e-002
      6.12449385e-002 9.15374756e-002 4.65881415e-002 6.80773780e-002
      2.50641592e-002 1.86806992e-002 3.56970690e-002 2.10927743e-002
      3.95564176e-002 2.20191479e-002 1.92151368e-002 3.78719270e-002
      2.90120225e-002 4.83913012e-002 2.59044003e-002 1.80503074e-002
      4.56008278e-002 2.54941285e-002 2.58755982e-002 7.86981080e-003
      5.00755012e-003 1.06415022e-002 4.62017767e-003 3.15120048e-003
      8.22655275e-004 4.77028341e-004 5.22573595e-004 4.07977408e-004
      6.64784107e-004 2.56806728e-004 2.02311887e-004 6.82704442e-004
      2.08285332e-004 3.28539427e-005 5.97344433e-006 0. 0. 0. 0. 0. 0.
      0. 0. 0. 0. 0. 0. 0. 0. 0. 0. 0. 0. 0. 0. 0. 0. 0. 0. 0. 0. 0. 0.
      0. 0. 0. 0. 0. 0. 0. 0. 0. 0. 0. 0. 0. 0. 0. 0. 0. 2.40745885e-005
      0. 2.98672217e-006 1.17205411e-004 3.88612971e-004 4.39529831e-004
      1.67112565e-003 2.66807969e-003 4.99860989e-003 8.54951609e-003
      7.58608291e-003 1.63153540e-002 2.37581395e-002 3.53809446e-002
      1.95091013e-002 5.08515313e-002 5.84874414e-002 6.47753626e-002
      6.85577616e-002 3.22242416e-002 6.83148429e-002 6.72782287e-002
      6.82011321e-002 4.37005125e-002 7.46430457e-002 7.75361136e-002
      8.29612389e-002 3.75180505e-002 7.65664950e-002 8.72227699e-002
      8.53912830e-002 8.56683478e-002 4.07445952e-002 9.33019966e-002
      8.84760097e-002 7.63970539e-002 4.60015684e-002 7.28556439e-002
      6.97698891e-002 7.37413242e-002 7.53276423e-002 3.69143523e-002
      6.89677224e-002 7.97840059e-002 8.42463449e-002 4.67021652e-002
      7.65538141e-002 3.31083760e-002 -6.65036216e-003 -2.24221963e-002
      6.28032908e-003 -7.56594911e-002 -1.49394900e-001 -1.15700841e-001
      -6.77491650e-002 -9.76331756e-002 -1.36770025e-001
      -2.73764819e-001 -2.06483856e-001 -2.67385155e-001
      -1.58236101e-001 -2.24282622e-001 -1.31389558e-001
      -2.08895281e-002 -4.06179428e-002 7.34291680e-004 4.85050529e-002
      3.89756672e-002 7.42952004e-002 1.12401530e-001 9.46593806e-002
      6.15848899e-002 1.18236691e-001 1.01247840e-001 5.53520992e-002
      7.66386017e-002 6.81893080e-002 8.18553641e-002 -4.31728608e-004
      -9.56864655e-002 -9.62400436e-003 3.24976146e-002 1.52484681e-002
      -1.10831782e-001 -2.17517093e-001 -7.38761574e-002
      -8.89063179e-002 -1.02745835e-002 -1.71617374e-001
      -2.05374315e-001 -2.23963737e-001 -8.86270851e-002 3.92342471e-002
      -1.62237827e-002 -1.85822845e-001 -7.92488381e-002 4.16011736e-002
      4.62366594e-003 -4.20796387e-002 -9.60529670e-002 -7.16471598e-002
      -9.84848663e-003 2.00790316e-002 2.22765724e-003 -1.06127644e-002
      2.14814041e-002 3.19093801e-002 1.24879070e-002 1.18221268e-002
      1.25448713e-002 4.58482094e-002 4.28148545e-002 4.18917239e-002
      2.80641615e-002 2.16284636e-002 1.44858202e-002 2.18028631e-002
      2.36746836e-002 1.67258140e-002 7.40701193e-003 7.07529346e-003
      1.07468963e-002 6.03838312e-003 3.40072997e-003 2.21410627e-003
      4.30534175e-003 4.34479211e-003 1.45315449e-003 3.07015143e-004
      1.05749663e-004 3.75240743e-005 6.82255859e-006 3.41127929e-006 0.
      0. 0. 0. 0. 0. 0. 0. 0. 0. 0. 0. 0. 0. 0. 0. 0. 0. 0. 0. 0. 0. 0.
      0. 0. 0. 0. 0. 0. 0. 0. 0. 0. 0. 0. 0. 0. 0. 0. 0. 0. 0. 0. 0. 0.
      0. 0. 0. 0. 0. 0. 0. 0. 0. 0. 0. 0. 0. 0. 0. 0. 0. 0. 0. 0. 0. 0.
      0. 0. 0. 0. 0. 0. 0. 0. 0. 0. 0. 0. 0. 0. 0. 0. 0. 0. 0. 0. 0. 0.
      0. 0. 0. 0. 0. 0. 0. 0. 0. 0. 0. 0. 0. 0. 0. 0. 0.</_></support_vectors>
  <decision_functions>
    <_>
      <sv_count>1</sv_count>
      <rho>-1.0288348052223257e+000</rho>
      <alpha>
        1.</alpha>
      <index>
        0</index></_></decision_functions></my_svm>
</opencv_storage>
