<?xml version="1.0"?>
<opencv_storage>
<my_svm type_id="opencv-ml-svm">
  <svm_type>C_SVC</svm_type>
  <kernel><type>LINEAR</type></kernel>
  <C>3.7000000000000002e+000</C>
  <term_criteria><epsilon>2.2204460492503131e-016</epsilon>
    <iterations>100</iterations></term_criteria>
  <var_all>512</var_all>
  <var_count>512</var_count>
  <class_count>2</class_count>
  <class_labels type_id="opencv-matrix">
    <rows>1</rows>
    <cols>2</cols>
    <dt>i</dt>
    <data>
      0 1</data></class_labels>
  <sv_total>1</sv_total>
  <support_vectors>
    <_>
      0. 0. 0. 0. 0. 0. 0. 0. 0. 0. 0. 0. 0. 0. 0. 0. 0. 0. 0. 0. 0. 0.
      0. 0. 0. 0. 0. 0. 0. 0. 0. 0. 0. 0. 0. 0. 0. 0. 0. 0. 0. 0. 0. 0.
      0. 0. 0. 0. 0. 0. 0. 0. 0. 0. 0. 0. 0. 0. 0. 0. 0. 0.
      4.50082152e-004 7.31383509e-004 1.18146569e-003 1.44400506e-003
      9.00164305e-004 1.53778924e-003 3.93821916e-004 7.31383509e-004
      1.46276702e-003 7.50145409e-004 6.01987448e-003 3.82577488e-003
      5.21354517e-003 1.32588651e-002 9.92084946e-003 1.45909870e-002
      1.13277892e-002 1.48167163e-002 3.65349911e-002 2.10243873e-002
      3.89542580e-002 2.67824866e-002 2.83772759e-002 5.05449437e-002
      2.31063496e-002 3.97233702e-002 2.62004081e-002 5.08992039e-002
      2.89001893e-002 2.49807332e-002 4.73717339e-002 2.53732800e-002
      4.66396883e-002 2.81854011e-002 3.00001055e-002 4.61045615e-002
      2.50994209e-002 4.61575761e-002 2.27253586e-002 2.46326197e-002
      4.83817756e-002 2.49057449e-002 4.18977924e-002 2.25474853e-002
      2.34590452e-002 4.88996506e-002 2.95929201e-002 4.58040126e-002
      2.56559737e-002 2.06173714e-002 4.46909033e-002 2.55455598e-002
      4.49875891e-002 2.47874428e-002 2.57102605e-002 4.79200296e-002
      2.67292056e-002 5.16604632e-002 2.53540147e-002 2.40749475e-002
      5.27632907e-002 3.21414098e-002 5.71531802e-002 3.39190848e-002
      3.12963091e-002 8.32114518e-002 6.75629079e-002 1.12610713e-001
      6.36784658e-002 6.79963976e-002 7.02826828e-002 1.43092647e-001
      1.91432789e-001 9.32182670e-002 -4.51422594e-002 -2.05068029e-002
      -3.65101285e-002 1.61632836e-001 1.58901453e-001 -8.87006987e-003
      -1.92132205e-001 -3.51630628e-001 -3.06324422e-001 5.42782098e-002
      -2.60734379e-001 -5.38284183e-001 -3.84267688e-001
      -1.08024552e-001 1.00028917e-001 -1.15237296e-001 -2.73967773e-001
      -3.95537503e-002 1.54865548e-001 1.71824321e-001 1.68280333e-001
      6.44465312e-002 -1.43590376e-001 -1.70450285e-002 1.18304789e-001
      -1.70967560e-002 -2.19648331e-001 -3.17096084e-001
      -2.22234726e-001 2.80118696e-002 -1.10612474e-001 -1.84881836e-001
      -1.42057806e-001 -5.27848378e-002 -9.64638814e-002
      -1.44104928e-001 -9.27577540e-002 -5.75162396e-002
      -3.72449122e-002 -4.48451042e-002 -5.16645797e-002
      -1.07767489e-002 6.89669559e-003 3.01355924e-002 1.29383318e-002
      1.00827543e-002 -8.54329206e-003 -1.73187926e-002 4.60688584e-003
      -1.98874041e-003 1.72656812e-002 1.76116358e-002 2.07072422e-002
      3.61535996e-002 2.90370844e-002 5.56054935e-002 3.23651358e-002
      2.67067291e-002 2.77169831e-002 2.30564997e-002 4.48180884e-002
      1.87359881e-002 1.54979685e-002 3.03268544e-002 2.23779995e-002
      4.86238152e-002 3.89705449e-002 2.94560976e-002 3.13714370e-002
      2.85940394e-002 4.27573957e-002 2.09174827e-002 1.35598546e-002
      3.32218818e-002 2.97144558e-002 3.49905342e-002 1.79159939e-002
      5.89779578e-003 9.99781583e-003 7.53611606e-003 1.02295429e-002
      2.86524091e-003 9.47870198e-004 2.16047614e-004 0. 0. 0. 0. 0. 0.
      0. 0. 0. 0. 0. 0. 0. 0. 0. 0. 0. 0. 0. 0. 0. 0. 0. 0. 0. 0. 0. 0.
      0. 0. 0. 0. 0. 0. 0. 0. 0. 0. 0. 0. 0. 0. 0. 0. 0. 0. 0. 0. 0. 0.
      0. 0. 0. 0. 0. 0. 4.78809989e-006 2.03494255e-005 2.15464497e-005
      9.45649808e-005 1.81947806e-004 3.81850987e-004 5.54222614e-004
      5.30282094e-004 1.14196190e-003 1.57169392e-003 2.36771558e-003
      1.28440780e-003 2.97580427e-003 3.44612519e-003 3.99468048e-003
      4.26215492e-003 2.03275657e-003 4.77129500e-003 4.79772780e-003
      4.56943735e-003 3.08197457e-003 5.00686560e-003 5.67202317e-003
      5.90935210e-003 2.66712112e-003 5.68884471e-003 6.07383531e-003
      6.58794818e-003 7.17151724e-003 4.00887337e-003 8.96012504e-003
      1.00800106e-002 1.14627574e-002 6.00786228e-003 1.41106611e-002
      1.77122764e-002 1.85287464e-002 1.78779680e-002 1.01779466e-002
      2.02897154e-002 1.96086224e-002 1.52013758e-002 7.92869832e-003
      9.84070078e-003 -3.39207239e-003 -1.00239199e-002 -1.33342342e-002
      -2.48385500e-002 -5.43791391e-002 -9.01657045e-002
      -8.24287310e-002 -2.52332017e-002 -3.55479568e-002
      -4.05272320e-002 5.36006130e-003 1.50941554e-002 5.07005565e-002
      3.97765227e-002 5.84510304e-002 5.85104749e-002 3.49447913e-002
      4.56785969e-002 3.56908934e-003 -9.03993193e-003 -3.94715033e-002
      -3.39523219e-002 4.11113575e-002 -2.02212539e-002 -1.12625323e-002
      1.75249530e-003 -2.29250733e-002 -1.52721852e-002 1.01111038e-002
      -3.54656652e-002 -1.78678781e-002 2.55465396e-002 6.59176055e-003
      -3.77570651e-002 -1.77257493e-001 -2.40241095e-001
      -9.74057987e-002 1.00436896e-001 -5.74395806e-002 -1.94554269e-001
      -1.60537019e-001 9.13182274e-002 1.64530843e-001 2.02011913e-001
      7.51597509e-002 -1.56025793e-002 2.48048510e-002 2.04429016e-001
      4.06710953e-002 -1.14329912e-001 -3.54102924e-002 -2.81139533e-003
      1.06003135e-001 5.16575426e-002 -4.11129594e-002 -6.44632503e-002
      -1.33471368e-002 2.36526374e-002 1.01231318e-002 5.10227354e-003
      -5.90224331e-003 5.29135671e-003 2.16598623e-002 -1.99845046e-004
      5.16861328e-005 1.64283887e-002 7.31500704e-003 2.88783200e-003
      1.50013797e-003 3.43149435e-003 3.01888515e-003 3.30005889e-003
      1.44382671e-003 8.99985956e-004 5.06316952e-004 1.68780811e-004
      3.75238305e-005 0. 1.87619153e-005 0. 0. 0. 0. 0. 0. 0. 0. 0. 0.
      0. 0. 0. 0. 0. 0. 0. 0. 0. 0. 0. 0. 0. 0. 0. 0. 0. 0. 0. 0. 0. 0.
      0. 0. 0. 0. 0. 0. 0. 0. 0. 0. 0. 0. 0. 0. 0. 0. 0. 0. 0. 0. 0. 0.
      0. 0. 0. 0. 0. 0. 0. 0. 0. 0. 0. 0. 0. 0. 0. 0. 0. 0. 0. 0. 0. 0.
      0. 0. 0. 0. 0. 0. 0. 0. 0. 0. 0. 0. 0. 0. 0. 0. 0. 0. 0. 0. 0. 0.
      0. 0. 0. 0. 0. 0. 0. 0. 0. 0. 0. 0. 0. 0. 0.</_></support_vectors>
  <decision_functions>
    <_>
      <sv_count>1</sv_count>
      <rho>-1.1049473521919719e+000</rho>
      <alpha>
        1.</alpha>
      <index>
        0</index></_></decision_functions></my_svm>
</opencv_storage>
